{
  "config": {
    "epochs": 8000,
    "learning_rate": 0.005,
    "architecture": "1 \u2192 8 (ReLU) \u2192 1",
    "true_relation": "y = x\u00b2 + 0.01",
    "noise_std": 0.05
  },
  "history": [
    {
      "epoch": 1,
      "train_loss": 23.435779,
      "test_loss": 9.74083,
      "W1": [
        2.520799151497856,
        0.5623303869697855,
        1.3896035224622039,
        3.154208605390299,
        2.5966091116236094,
        -1.3889108591816663,
        1.3587011818464483,
        -0.20629475566767505,
        -0.1696956061616058,
        0.555314057349975,
        0.204506267532581,
        2.0533893743266867,
        1.1029970895226655,
        0.1976958073381854,
        0.6304192366063721,
        0.47848081505880086
      ],
      "b1": [
        0.012142594791189192,
        -0.0016673506173319177,
        0.002544346086932178,
        -0.006941358500727762,
        -0.02074851418284732,
        0.0029268262227925977,
        0.007025396897771534,
        -0.003323326567692761,
        0.010163690872833865,
        -0.011819838308520663,
        0.0003718860292064798,
        -0.0015212699803865504,
        0.012457116386067451,
        0.011941689343169914,
        0.0012592799390458238,
        0.00307338100321545
      ],
      "W2": [
        0.6512765171872301,
        -0.0446240823500018,
        0.17895153717822185,
        -0.1456697719753983,
        -0.7723590593785153,
        0.2719447459378904,
        0.37189147794850363,
        -0.25606738241495686,
        0.8067945678073881,
        -0.4855573346825372,
        0.026224884816449114,
        0.03525373774107743,
        0.5950004374449347,
        0.5279834104997236,
        0.08574092956999797,
        0.15697388510253163
      ],
      "b2": 0.035652392465947716,
      "dW1": [
        -5.210479818861977,
        0.7154728368996471,
        -1.0917982660329049,
        2.97858975000729,
        8.90334531294275,
        1.3662454506442745,
        -3.0146512656335718,
        -1.5513322139717745,
        4.7444212125155625,
        5.071982556269344,
        -0.15957912484266534,
        0.6527885240472875,
        -5.345443428443887,
        -5.124269762411482,
        -0.5403666038050672,
        -1.3188111740785151
      ],
      "db1": [
        -2.4285189582378384,
        0.33347012346638355,
        -0.5088692173864355,
        1.3882717001455525,
        4.149702836569464,
        -0.5853652445585196,
        -1.4050793795543068,
        0.6646653135385522,
        -2.032738174566773,
        2.3639676617041325,
        -0.07437720584129595,
        0.3042539960773101,
        -2.49142327721349,
        -2.388337868633983,
        -0.25185598780916474,
        -0.61467620064309
      ],
      "dW2": [
        -24.6079590115805,
        -5.582063482525258,
        -13.653077954860443,
        -31.259734509199074,
        -26.05182923194416,
        -8.171135073027514,
        -13.253425778032808,
        -1.2655153858933696,
        -0.8630249363616314,
        -5.727716146865992,
        -2.0093611752003753,
        -20.286644516402752,
        -10.61622983552154,
        -1.697327080703187,
        -6.191748370230771,
        -4.65464882037756
      ],
      "db2": -7.130478493189543
    },
    {
      "epoch": 20,
      "train_loss": 1.782721,
      "test_loss": 1.400289,
      "W1": [
        2.5507135721881555,
        0.5607260871626324,
        1.398245416114037,
        3.1497704884164115,
        2.564517770368855,
        -1.5546871209939312,
        1.3757339829722033,
        -0.1301392651992309,
        -0.45318406108583204,
        0.5344866440430718,
        0.205773237871257,
        2.0561701361702953,
        1.1296000315714294,
        0.2208373737531705,
        0.6345383839330905,
        0.4856127534992012
      ],
      "b1": [
        -0.0009911670534513252,
        -0.001627414079479031,
        -0.0018798241706496984,
        -0.008353609451170016,
        -0.011708311585644445,
        0.06144330397221191,
        -0.0003797932855432204,
        -0.031778769070575884,
        0.11101165088763922,
        -0.004876427232933191,
        -0.0002774748758749873,
        -0.004474896061612946,
        0.0018150279676750238,
        0.0032066172635258376,
        -0.0008190768207098531,
        5.522280580685636e-05
      ],
      "W2": [
        0.7614039497835607,
        -0.020111691355050015,
        0.23960824970282046,
        -0.008145537160194956,
        -0.6593332636025617,
        0.7600097621816555,
        0.4312557231202717,
        -0.2018225271132706,
        0.91384726217043,
        -0.46147730869128983,
        0.035151627875304826,
        0.1248192744227327,
        0.6432771074485559,
        0.5367586108473346,
        0.11326027028976546,
        0.1778871719339283
      ],
      "b2": 0.14237426389070074,
      "dW1": [
        -0.0067480037422943465,
        0.00017851686028115933,
        -0.002123286274950299,
        7.35833958713702e-05,
        0.005845486831806107,
        1.3995973019926682,
        -0.003822068772967438,
        -0.38210441639508297,
        1.713050688467916,
        0.004090791891635484,
        -0.00031149554084666364,
        -0.001105502699555603,
        -0.0057015438463263735,
        -0.004770214483339693,
        -0.0010036664045637413,
        -0.0015765876693263417
      ],
      "db1": [
        0.297432947351393,
        -0.007868519036607504,
        0.09358846244719239,
        -0.003243348276909004,
        -0.25765255081152283,
        -0.33640454846296824,
        0.16846599728424344,
        0.09857278394563422,
        -0.37509806954005626,
        -0.18031055343140942,
        0.013729843719579532,
        0.048727436852598185,
        0.2513079505331542,
        0.2109502579635826,
        0.04423878057386337,
        0.06949153188912718
      ],
      "dW2": [
        -0.0224151492771823,
        -0.0056214130925967415,
        -0.012945407903885653,
        -0.031189256589934794,
        -0.027809546997423745,
        -2.9332043528678007,
        -0.012013467851857237,
        -0.23337606005563483,
        -0.8825167289376641,
        -0.006995237569694817,
        -0.0019055236888152732,
        -0.019878738745275654,
        -0.008812346038210635,
        -0.0002876367122157733,
        -0.005858020762077962,
        -0.004147020550026265
      ],
      "db2": -0.060646457621065034
    },
    {
      "epoch": 40,
      "train_loss": 1.199761,
      "test_loss": 1.069986,
      "W1": [
        2.55185913894749,
        0.5606965481975855,
        1.398606600267045,
        3.1497618749213925,
        2.563531245169672,
        -1.6358429712263398,
        1.3763827476883197,
        -0.1108451223301797,
        -0.5448652728387395,
        0.5337942887482698,
        0.2058262259795609,
        2.0563598100800404,
        1.1305666971474686,
        0.2216450893302029,
        0.6347090815802928,
        0.4858802664718991
      ],
      "b1": [
        -0.02953372856021082,
        -0.0008894399212723632,
        -0.01087708083042451,
        -0.008128927082302524,
        0.01288675464927345,
        0.06063472946426626,
        -0.01654441848690271,
        -0.032825885041589634,
        0.1078618576552975,
        0.012412539787343272,
        -0.0015974300016171694,
        -0.009195555709363697,
        -0.022273337943849645,
        -0.01684588818616397,
        -0.005071314072126408,
        -0.00661039113356533
      ],
      "W2": [
        0.7657759096409517,
        -0.019222646564140314,
        0.2419365479737998,
        -0.003111217352532949,
        -0.6554851754470432,
        0.915122962655441,
        0.433621663365677,
        -0.19009449432576322,
        0.9620641504245734,
        -0.46080040425241414,
        0.03549423021906669,
        0.12815568615192474,
        0.6453326397875693,
        0.5373272486629068,
        0.11431861464837763,
        0.17873230844409177
      ],
      "b2": 0.10503733315800237,
      "dW1": [
        -0.013716080093058039,
        0.00034535866716917996,
        -0.004332409660813176,
        6.106312423599959e-05,
        0.011748642664974274,
        0.4362428763818993,
        -0.0077668651152812684,
        -0.09305036213769965,
        0.4626054160469526,
        0.008267124056362197,
        -0.0006356017162133967,
        -0.002292689652341945,
        -0.011560499581808617,
        -0.009758183328198146,
        -0.002047172123605825,
        -0.0032015220685806117
      ],
      "db1": [
        0.273669462584013,
        -0.006890753057847485,
        0.0864422061933428,
        -0.0012183592017536184,
        -0.23441425701811283,
        0.2180551638763399,
        0.15496802203257243,
        -0.03508513887069345,
        0.25017455182992415,
        -0.1657524917534816,
        0.01268181425840709,
        0.04574478573844923,
        0.23066034073084074,
        0.18988728691295828,
        0.0408461084422897,
        0.06387822307940291
      ],
      "dW2": [
        -0.05579195114698238,
        -0.010376819839311067,
        -0.028793772382287725,
        -0.059345365895404234,
        -0.04174602460610294,
        -0.7672820870614834,
        -0.030298873684987196,
        -0.060480639880458514,
        -0.23279252286932192,
        -0.005410366381848622,
        -0.004236333136334829,
        -0.04005108924434475,
        -0.027806850851239545,
        -0.009642869102468955,
        -0.01311246548840065,
        -0.010954723835601057
      ],
      "db2": 0.5967883839396904
    },
    {
      "epoch": 60,
      "train_loss": 1.064548,
      "test_loss": 0.973131,
      "W1": [
        2.5532495539885836,
        0.5606626651985805,
        1.399046849734052,
        3.1497613824985646,
        2.562348487433786,
        -1.6636868507825793,
        1.3771699601628336,
        -0.10510293243133148,
        -0.5737585881162857,
        0.5329580291617663,
        0.20589081550953214,
        2.0565951602756742,
        1.1317367611197375,
        0.2226406043078169,
        0.6349170633204225,
        0.48620461078828453
      ],
      "b1": [
        -0.05558672108882799,
        -0.00025428805727119384,
        -0.019126030808698614,
        -0.008118349940464403,
        0.03507864587626351,
        0.031077672961881672,
        -0.03129489289538355,
        -0.02780095971946077,
        0.07632832002567588,
        0.02817239092318099,
        -0.002807643123886331,
        -0.013604749146710378,
        -0.04419792340694886,
        -0.03480251818707934,
        -0.008968277063497485,
        -0.01268786077662103
      ],
      "W2": [
        0.7718136890545595,
        -0.018188510103437073,
        0.24496836189857552,
        0.0028617494231574143,
        -0.6516430074490517,
        0.9626244544217084,
        0.4369103498980943,
        -0.18598144857400636,
        0.9757027069361313,
        -0.4605128495097659,
        0.03594023548044204,
        0.13225831539831895,
        0.648486690267686,
        0.5385853595062373,
        0.11570155632836351,
        0.17993340879396558
      ],
      "b2": 0.039769048237902414,
      "dW1": [
        -0.013653673134012924,
        0.0003227784507787168,
        -0.004332617835555006,
        -4.5481749785796025e-05,
        0.011542716269290085,
        0.19499432585517468,
        -0.007729219349753628,
        -0.038814418457267685,
        0.19829751580862723,
        0.00823517462401913,
        -0.0006356537257261826,
        -0.002337047151460662,
        -0.011473631132144134,
        -0.009881548811460326,
        -0.002046390819210977,
        -0.00318326786350304
      ],
      "db1": [
        0.2489195245736042,
        -0.005884559980441577,
        0.07898776843418545,
        0.0008291758138880058,
        -0.21101956648447953,
        0.3311581999087598,
        0.14091106378348697,
        -0.057723516852194796,
        0.3404602321596102,
        -0.1509507112976368,
        0.01158857559047903,
        0.042606605573302515,
        0.2091752730942097,
        0.17049229185346929,
        0.03730766254692606,
        0.0580340187872012
      ],
      "dW2": [
        -0.06271822698884799,
        -0.010013930000968334,
        -0.03080280504932502,
        -0.058361098333592765,
        -0.03436174329124925,
        -0.3260992687106558,
        -0.03424164583023091,
        -0.03066848037816916,
        -0.08921956432342718,
        -0.0005442371143809417,
        -0.004530882871674675,
        -0.04071727046469903,
        -0.03395069894171454,
        -0.014833059813521995,
        -0.014069676219183258,
        -0.012604390864272372
      ],
      "db2": 0.667243211470277
    },
    {
      "epoch": 80,
      "train_loss": 0.962311,
      "test_loss": 0.88572,
      "W1": [
        2.55455039509092,
        0.5606328791339111,
        1.3994605521794132,
        3.1497706037433493,
        2.561256501965295,
        -1.679913752494795,
        1.377906248274658,
        -0.10195754239856493,
        -0.5900563766304642,
        0.532176393887639,
        0.20595151224519817,
        2.056820340441371,
        1.1328279599706645,
        0.22358925929438805,
        0.6351124238195265,
        0.4865077240734732
      ],
      "b1": [
        -0.07927573335999284,
        0.00028811985280685257,
        -0.02665978524542612,
        -0.008286335751824539,
        0.05498780099561567,
        -0.002537650228928088,
        -0.04470309189322881,
        -0.021897698683586063,
        0.04251870976505632,
        0.042439816153415695,
        -0.003912964863928715,
        -0.017705432380895548,
        -0.0640831190448112,
        -0.05101947129750981,
        -0.012525901226628514,
        -0.01820771367810826
      ],
      "W2": [
        0.7781448484441713,
        -0.01724734274280221,
        0.24801169637486156,
        0.008400518935839362,
        -0.6487043936545274,
        0.9899042525773104,
        0.44037456442003714,
        -0.18341896755967896,
        0.9832993194641813,
        -0.46069162893406396,
        0.03638784345130543,
        0.1361867946024958,
        0.6520276443397917,
        0.5402556929417333,
        0.11709352520451972,
        0.18121800675515484
      ],
      "b2": -0.02524304658168005,
      "dW1": [
        -0.012384975240380264,
        0.0002753256847638332,
        -0.003946586932138653,
        -0.00012957290626605195,
        0.01033006936385248,
        0.14322396493095324,
        -0.007009103591028475,
        -0.027032979499373597,
        0.14232316397342748,
        0.007433504369352667,
        -0.0005790355232361303,
        -0.0021654235091768254,
        -0.010362850251117148,
        -0.00909685042917276,
        -0.0018633321980441528,
        -0.0028844141966250514
      ],
      "db1": [
        0.22640304822329868,
        -0.0050330802504523165,
        0.07214542574143992,
        0.002368652369214196,
        -0.1887625847754371,
        0.3346255422890918,
        0.1281296399485565,
        -0.05913300269087907,
        0.3315562968535409,
        -0.13571583310379612,
        0.010585035895978688,
        0.03958493849657247,
        0.19005564809881995,
        0.15507257727210225,
        0.03406257027582578,
        0.05272841921599345
      ],
      "dW2": [
        -0.06341924969610935,
        -0.008850169806512407,
        -0.029937510912945803,
        -0.05256072841741355,
        -0.025055894742313234,
        -0.2435459861689886,
        -0.0347644735207962,
        -0.02218837415233482,
        -0.07043147368726499,
        0.0037151060224713817,
        -0.004402765605016748,
        -0.037845510038754374,
        -0.036415899442753266,
        -0.018188946432646277,
        -0.013708792335958175,
        -0.01296919526867435
      ],
      "db2": 0.6295255725085097
    },
    {
      "epoch": 100,
      "train_loss": 0.875903,
      "test_loss": 0.810221,
      "W1": [
        2.555721095311504,
        0.5606076183577376,
        1.3998343316311046,
        3.149786719313125,
        2.5602862413841425,
        -1.693149756374825,
        1.3785687057268876,
        -0.09952401146118948,
        -0.6031041094169917,
        0.5314798912260137,
        0.2060063532104919,
        2.0570270229663827,
        1.1338036468774775,
        0.22443383008085074,
        0.6352888674290125,
        0.4867802415455132
      ],
      "b1": [
        -0.10083668378558192,
        0.0007533195084451475,
        -0.033543763886795586,
        -0.008583298343173352,
        0.07281839058461513,
        -0.035307391189685136,
        -0.056903660383523416,
        -0.016069198460438302,
        0.0103018195036987,
        0.05522048720990459,
        -0.004922983055108719,
        -0.02151201590946337,
        -0.08220754469653119,
        -0.065918017085672,
        -0.01577550080792809,
        -0.02322670069664219
      ],
      "W2": [
        0.7844450595288986,
        -0.016421181660873547,
        0.2509354694868621,
        0.013353759851258515,
        -0.6466152490793722,
        1.012798222295919,
        0.4438339698278413,
        -0.18146380428627681,
        0.9902958571219895,
        -0.46123303891158884,
        0.03681779242425065,
        0.13980814351572235,
        0.6557340998331107,
        0.5422046212756036,
        0.11843384645116223,
        0.1825157055489607
      ],
      "b2": -0.08553541398497458,
      "dW1": [
        -0.011119964838318265,
        0.00023342261260139664,
        -0.0035565466816992134,
        -0.00018604582673492588,
        0.009163329243071297,
        0.12438432445902367,
        -0.006291675186221719,
        -0.022416061032592156,
        0.12172080750568082,
        0.006560288013025547,
        -0.000521823538865029,
        -0.0019801853303345815,
        -0.009174447999013492,
        -0.007717536140351713,
        -0.0016786075461453177,
        -0.0025873790811693307
      ],
      "db1": [
        0.2061425051305386,
        -0.004327200923329907,
        0.06593145331294588,
        0.00344892752358918,
        -0.16924506878355045,
        0.3206304179496487,
        0.11663541236084891,
        -0.05683821906480607,
        0.3125584041722732,
        -0.12091796584399486,
        0.009673592776754527,
        0.036708781956872445,
        0.1743496195607914,
        0.14434929448479433,
        0.0311181168038436,
        0.047964972306086866
      ],
      "dW2": [
        -0.062480707845275374,
        -0.007757767599116363,
        -0.028582854925124745,
        -0.04691978418671927,
        -0.01744269152526097,
        -0.21876997040986393,
        -0.03435557878527053,
        -0.017421814044499877,
        -0.07033513272083211,
        0.00675882908075633,
        -0.004202885483919269,
        -0.03477812396819756,
        -0.03749919043897053,
        -0.020554835071328666,
        -0.013115413422224997,
        -0.012946033307482143
      ],
      "db2": 0.5786257478913104
    },
    {
      "epoch": 120,
      "train_loss": 0.802458,
      "test_loss": 0.746064,
      "W1": [
        2.556771022255569,
        0.5605861798155425,
        1.4001707039955344,
        3.1498073243807467,
        2.5594278956704857,
        -1.704895378914917,
        1.379162688324859,
        -0.0974460857190972,
        -0.614518318485987,
        0.5308651415867076,
        0.2060557070330895,
        2.057215555301695,
        1.134664934555206,
        0.22516887445602812,
        0.635447602539492,
        0.48702314856330803
      ],
      "b1": [
        -0.12046289373392524,
        0.0011540408966770714,
        -0.039831574976547726,
        -0.008968607834937607,
        0.0887502583686626,
        -0.06653496212116573,
        -0.06800693193812585,
        -0.010562799493259568,
        -0.019886695804457094,
        0.06661066129590354,
        -0.005845554452985403,
        -0.025036309889801062,
        -0.09885298514459546,
        -0.07974214821686262,
        -0.018742736253096512,
        -0.02781690814316514
      ],
      "W2": [
        0.7905995394419992,
        -0.015697163711803234,
        0.2537128817599264,
        0.01777242868409587,
        -0.6451962844689303,
        1.0338371017534969,
        0.4472224739502048,
        -0.1799209920965246,
        0.9974085720966764,
        -0.462021683658446,
        0.03722616087731882,
        0.14312918442511835,
        0.6595010657345275,
        0.5443533770281807,
        0.11970943906011106,
        0.1837984015182315
      ],
      "b2": -0.14076364797911783,
      "dW1": [
        -0.009963180256286744,
        0.00019832088403401687,
        -0.0031968259288422066,
        -0.00022141812105505273,
        0.00808893811183499,
        0.11166941554698427,
        -0.005635978379686091,
        -0.019452903323942748,
        0.10785323541427637,
        0.005771487192660855,
        -0.0004690555197645744,
        -0.001802406844657125,
        -0.008127950341907109,
        -0.006914944708175216,
        -0.0015083802978627008,
        -0.002295699927494687
      ],
      "db1": [
        0.18754796497235882,
        -0.0037332134173352245,
        0.06017739134518901,
        0.004167998263975539,
        -0.15077965422703005,
        0.3049019826922633,
        0.10609225654342283,
        -0.05327503675135955,
        0.292636531715065,
        -0.10759408209551215,
        0.00882955099958058,
        0.03392869817389825,
        0.15950401547320764,
        0.13340081116615213,
        0.028393911180121984,
        0.04401389839658375
      ],
      "dW2": [
        -0.060597219385469164,
        -0.006797820105262118,
        -0.027032756074112665,
        -0.0418326799293465,
        -0.011523092315195577,
        -0.2034664151323708,
        -0.03339966541470754,
        -0.01374759570949835,
        -0.07182293689120245,
        0.008755792366378388,
        -0.0039744432548435085,
        -0.03183616604078329,
        -0.03770959851839428,
        -0.022242818423731926,
        -0.012425133028385327,
        -0.012695883185535356
      ],
      "db2": 0.5288880761517272
    },
    {
      "epoch": 140,
      "train_loss": 0.739823,
      "test_loss": 0.691853,
      "W1": [
        2.5577075240267884,
        0.5605678929419232,
        1.4004735541466475,
        3.149830662570338,
        2.5586673243682987,
        -1.7154925755406738,
        1.3796907341608218,
        -0.0956252396126085,
        -0.6246830867819717,
        0.5303267509373109,
        0.20610014331451085,
        2.0573872866517458,
        1.1354173865005908,
        0.2258184618941671,
        0.6355904789000435,
        0.48723978986382016
      ],
      "b1": [
        -0.13842558779098213,
        0.0015002594299009249,
        -0.04556555180464391,
        -0.00941054362810313,
        0.10297924288406626,
        -0.09616273800367495,
        -0.07820026330054526,
        -0.0054512782611394915,
        -0.04835429602517466,
        0.07671447804572162,
        -0.006686883443662561,
        -0.028287791694882616,
        -0.11420739510310032,
        -0.09258628735854758,
        -0.021447868065526034,
        -0.0320114649405042
      ],
      "W2": [
        0.7965383000172906,
        -0.01506093486157814,
        0.2563333002014123,
        0.02172036038517973,
        -0.6442853132848662,
        1.0534969672588936,
        0.4505001727099454,
        -0.1787085747535941,
        1.0046490079505754,
        -0.4629640922456816,
        0.03761140169115349,
        0.14617073764142138,
        0.6632571775809979,
        0.5466433512641663,
        0.12091475288379998,
        0.18504882326739563
      ],
      "b2": -0.19119108582042366,
      "dW1": [
        -0.008842059447922115,
        0.00016973673217772196,
        -0.0028817142567654185,
        -0.00024219742628688555,
        0.007187515741731116,
        0.10102486043753803,
        -0.0050008681462056885,
        -0.017157896771021346,
        0.09631470702675786,
        0.005049772021860941,
        -0.0004228292223647865,
        -0.0016424361693808901,
        -0.007049027637392142,
        -0.0061680649270029475,
        -0.00135934724862185,
        -0.0020542221707511837
      ],
      "db1": [
        0.1727095030995631,
        -0.003230268102783666,
        0.05484204582906465,
        0.004609271138150902,
        -0.1348812071042586,
        0.2890266687022284,
        0.09768057517421345,
        -0.049087815852328145,
        0.27688801561886556,
        -0.09535227033992585,
        0.008046883738162768,
        0.03125728356343146,
        0.1477553027422994,
        0.12401828804999025,
        0.025869804381718896,
        0.0401245538390853
      ],
      "dW2": [
        -0.058239813537534296,
        -0.005987396902167114,
        -0.02544667656438304,
        -0.037437591200493836,
        -0.007126448579389114,
        -0.19061654778164205,
        -0.032176774232098276,
        -0.010750807409230526,
        -0.0728131758406095,
        0.00991820880545713,
        -0.0037408616871733684,
        -0.029162337976209582,
        -0.037354902390827394,
        -0.023417287895426235,
        -0.011712141690936019,
        -0.012310433661223436
      ],
      "db2": 0.48261802843655915
    },
    {
      "epoch": 160,
      "train_loss": 0.686415,
      "test_loss": 0.646058,
      "W1": [
        2.5585409630613087,
        0.560552233501549,
        1.4007461000718575,
        3.1498554262136818,
        2.557992286137371,
        -1.7250888223116205,
        1.3801620689197585,
        -0.0940127767449682,
        -0.6337773630731443,
        0.5298562039686584,
        0.2061401339068091,
        2.05754339574452,
        1.136071629169464,
        0.22643361187907898,
        0.6357190275121637,
        0.48743146750134797
      ],
      "b1": [
        -0.15488216446167102,
        0.0018002704103229435,
        -0.05078735662729451,
        -0.009885064365123559,
        0.11570211455620469,
        -0.12421360396295436,
        -0.08750694832049838,
        -0.000792461560610154,
        -0.07513917756356431,
        0.08566785183734209,
        -0.007453077512225051,
        -0.03127876870922526,
        -0.12837690229669552,
        -0.10446362386736426,
        -0.02391077634564413,
        -0.035860340708246195
      ],
      "W2": [
        0.8022170612890918,
        -0.014500931745088257,
        0.25879005329151006,
        0.02524966459244615,
        -0.6437575385093368,
        1.0719269114792167,
        0.45364033458213515,
        -0.17776588624932452,
        1.011946053238523,
        -0.46399006768373713,
        0.03797254657719313,
        0.14895087374874055,
        0.6669513522204472,
        0.5490271330012825,
        0.12204620601452562,
        0.1862537237109806
      ],
      "b2": -0.23718200795923,
      "dW1": [
        -0.007901103063265885,
        0.00014557073717769555,
        -0.0025920138146366765,
        -0.0002513375429254263,
        0.006378749750831296,
        0.09143799723587008,
        -0.004467974757950563,
        -0.015232295346417572,
        0.08616515024283432,
        0.0043944630602739225,
        -0.00038032869766883555,
        -0.001491228187476509,
        -0.00597760267105564,
        -0.0060253651151757626,
        -0.001222414779881875,
        -0.0017858409184673234
      ],
      "db1": [
        0.1573938451555804,
        -0.0028025677996243725,
        0.04990216161518026,
        0.004838819382907118,
        -0.1205284327002806,
        0.2743358453189987,
        0.08900424682237139,
        -0.04443299569799039,
        0.26089431570053356,
        -0.08432022805776562,
        0.007322192509464557,
        0.028709534492583743,
        0.13755058160794786,
        0.11454302627080486,
        0.023534264964942302,
        0.03723630261337116
      ],
      "dW2": [
        -0.05545131784349645,
        -0.00527242036043666,
        -0.02378567534852466,
        -0.03346544484292582,
        -0.003796716723997437,
        -0.17870292958079873,
        -0.030685143158457787,
        -0.008313899921935859,
        -0.07299014824888383,
        0.010474366000325717,
        -0.0034963734681438055,
        -0.026624063331127698,
        -0.036526192866273156,
        -0.024164675313189242,
        -0.010960264822635301,
        -0.011809322022410113
      ],
      "db2": 0.4398563671132427
    },
    {
      "epoch": 180,
      "train_loss": 0.640814,
      "test_loss": 0.607277,
      "W1": [
        2.559286307697147,
        0.5605387637508321,
        1.4009914690935479,
        3.1498806826654078,
        2.557392417566054,
        -1.7337861159106254,
        1.3805835210690622,
        -0.09257781594700618,
        -0.6419278058785738,
        0.5294493412244676,
        0.20617613743600552,
        2.057685168537892,
        1.1366259797858598,
        0.22699312110150766,
        0.635834733450166,
        0.4875991863118524
      ],
      "b1": [
        -0.16987173856933416,
        0.0020608585839209793,
        -0.05553448626437374,
        -0.0103737442632274,
        0.12706178909039298,
        -0.15081105565604516,
        -0.09598274126736223,
        0.003397061122180456,
        -0.10036877989027011,
        0.09355762592121235,
        -0.008149634158124395,
        -0.034021651652428354,
        -0.1415635766575131,
        -0.11555632232539728,
        -0.026149327042653905,
        -0.039414923104795926
      ],
      "W2": [
        0.8076043972066063,
        -0.014006826296758205,
        0.261081609648674,
        0.028408485874934244,
        -0.643511037183292,
        1.089220317873236,
        0.4566236279199767,
        -0.17703931043373128,
        1.0192290532707966,
        -0.4650449119240324,
        0.03830938056498703,
        0.1514887669331904,
        0.6705486763100549,
        0.5514700646839212,
        0.12310267752668617,
        0.18740593779172243
      ],
      "b2": -0.27906408624881196,
      "dW1": [
        -0.007060357259624596,
        0.00012537202978816207,
        -0.002332020498309724,
        -0.0002525185480840432,
        0.005666644443677073,
        0.08301215074009688,
        -0.003991987756925202,
        -0.013574157831191088,
        0.07729269980763631,
        0.0037841478948711857,
        -0.0003421849442084386,
        -0.0013526096782961418,
        -0.005162566118650177,
        -0.0051416173895057656,
        -0.0010995819269997448,
        -0.0015818097309911773
      ],
      "db1": [
        0.14329441415253025,
        -0.0024368397814364755,
        0.045327178087556395,
        0.004908170064419575,
        -0.10752625679862332,
        0.2584594010180673,
        0.08101991526744412,
        -0.04012327137045508,
        0.24537100219815858,
        -0.07414448211546958,
        0.006651004104062773,
        0.02629049779601846,
        0.12687025911714994,
        0.10793312187667883,
        0.021372430415213365,
        0.034058355621494514
      ],
      "dW2": [
        -0.052404323756334026,
        -0.004653117774899233,
        -0.02212530430255165,
        -0.029944645444228007,
        -0.0013788660123138508,
        -0.1677126498543373,
        -0.029037264538884666,
        -0.006377860177648182,
        -0.07254436973596551,
        0.010550088578272214,
        -0.0032520686448666916,
        -0.024273561901510435,
        -0.03542438621701652,
        -0.02463256142104666,
        -0.010204959274501418,
        -0.011251069174827114
      ],
      "db2": 0.40028065838907445
    },
    {
      "epoch": 200,
      "train_loss": 0.601944,
      "test_loss": 0.574145,
      "W1": [
        2.559947453656016,
        0.5605271071885769,
        1.4012128722116783,
        3.1499058183209843,
        2.5568642737462444,
        -1.7416757492196357,
        1.3809485382584772,
        -0.09130243231775953,
        -0.6492333920776933,
        0.5290983459644993,
        0.2062086248688621,
        2.0578140682530317,
        1.1370867022977853,
        0.2274524298979187,
        0.6359391186843365,
        0.4877481116732508
      ],
      "b1": [
        -0.1836062644767183,
        0.002287641377050961,
        -0.05984188963452761,
        -0.010862739880775544,
        0.13705537847896596,
        -0.1758381582082027,
        -0.10387283877980379,
        0.007159468987940833,
        -0.12410526185139083,
        0.10047960785082255,
        -0.008781677997880816,
        -0.03652939095561748,
        -0.15386825330640028,
        -0.1260629209429295,
        -0.028180144622685484,
        -0.04266488901852692
      ],
      "W2": [
        0.8126845077494141,
        -0.013568956754009216,
        0.2632114972693855,
        0.031243657431141172,
        -0.6434592884185895,
        1.1054296916650548,
        0.45944238030910206,
        -0.1764860972890048,
        1.0264309612392175,
        -0.4660858245852712,
        0.038622430688443385,
        0.1538057538041159,
        0.6740261815604796,
        0.5539506623014072,
        0.12408544741567415,
        0.188500733210639
      ],
      "b2": -0.3171446123565112,
      "dW1": [
        -0.00611432537984509,
        0.00010971831743149967,
        -0.0021242251314648724,
        -0.0002511530927164834,
        0.005019095603314226,
        0.07526338867629861,
        -0.0034566859187271336,
        -0.012008870495978506,
        0.06933932320981444,
        0.003294053576931931,
        -0.00031169871350819134,
        -0.001240862090646614,
        -0.004084084027409684,
        -0.004253576209383991,
        -0.0010014288630294079,
        -0.001418236493593259
      ],
      "db1": [
        0.13416869341537357,
        -0.0021219266131580284,
        0.041082017518255735,
        0.004857242107679725,
        -0.09407636421977422,
        0.24290401452924662,
        0.07585121897367698,
        -0.035028966385443894,
        0.2302254345273102,
        -0.06488193811615768,
        0.006028180261632976,
        0.023997982789390002,
        0.12021161956142971,
        0.10238338087265009,
        0.0193674001332855,
        0.03112083925507908
      ],
      "dW2": [
        -0.04947628545769066,
        -0.004169923798328638,
        -0.02062441353049209,
        -0.027123317422245163,
        2.5095145485251602e-05,
        -0.157039554052742,
        -0.027484048994681112,
        -0.0048297847446843786,
        -0.07143787844275852,
        0.010203810444130226,
        -0.0030313023383675853,
        -0.022298867632919495,
        -0.03423343524818167,
        -0.024956818721037825,
        -0.009519218669748208,
        -0.010690824214694996
      ],
      "db2": 0.3635963570428761
    },
    {
      "epoch": 220,
      "train_loss": 0.568673,
      "test_loss": 0.54574,
      "W1": [
        2.560520253671022,
        0.560516935368353,
        1.401413636095549,
        3.149930488008656,
        2.5563939212863938,
        -1.748828738318195,
        1.3812723493653956,
        -0.09017503776752567,
        -0.6557495593433811,
        0.5288112706227301,
        0.20623808419624223,
        2.0579317314749495,
        1.1374568878031786,
        0.22781611907333846,
        0.6360337576119474,
        0.48787669346634793
      ],
      "b1": [
        -0.1964069243049319,
        0.0024852689234207345,
        -0.06374260126095543,
        -0.011342076143226486,
        0.14588071131379526,
        -0.1994184460312297,
        -0.11110921197026279,
        0.010417787879342895,
        -0.14661235214430599,
        0.10643561591795384,
        -0.009354053563763088,
        -0.03881551921736806,
        -0.16542708852332735,
        -0.13606773806374056,
        -0.03001891723709318,
        -0.04568053594315658
      ],
      "W2": [
        0.817463430481073,
        -0.013178105865791354,
        0.2651875899589177,
        0.033801488721313895,
        -0.6435277129955533,
        1.1206124060721525,
        0.462098643802691,
        -0.1760665540314436,
        1.0335047717863073,
        -0.46707917200430543,
        0.03891286145576711,
        0.1559252786892728,
        0.6773757077554653,
        0.556457350827056,
        0.12499785299877594,
        0.18953625146278447
      ],
      "b2": -0.35170060171343165,
      "dW1": [
        -0.005393610786165463,
        9.491662205002457e-05,
        -0.0019066907314343896,
        -0.00024224688412268565,
        0.004431359335396668,
        0.06816141921194295,
        -0.0030489335362350323,
        -0.010602268459635982,
        0.06184521502587979,
        0.0026069549198592737,
        -0.00027978213591664915,
        -0.001120772115368077,
        -0.003370370419517134,
        -0.0034378976522229307,
        -0.0008987372525479194,
        -0.0011636052500164189
      ],
      "db1": [
        0.12258273700696118,
        -0.0018507691405649708,
        0.03717836022946738,
        0.004723546285665219,
        -0.08315067135453169,
        0.23144586736574843,
        0.06929432483016007,
        -0.029963251267266497,
        0.2192711417381298,
        -0.05544399273423222,
        0.005455442177061279,
        0.021853816538432203,
        0.11152360490748758,
        0.09743061439691304,
        0.017524382311195005,
        0.029385570305066517
      ],
      "dW2": [
        -0.04626748048051227,
        -0.0036842940280981916,
        -0.01899328010418453,
        -0.024243385555236294,
        0.001192050861755542,
        -0.14739689339130088,
        -0.025730221887356533,
        -0.003685494242429057,
        -0.0701185829847248,
        0.009650804766331789,
        -0.0027914161375361384,
        -0.02023015017223391,
        -0.0328116504739131,
        -0.025151994478225817,
        -0.008772434143884268,
        -0.010057315616867915
      ],
      "db2": 0.32963794967176285
    },
    {
      "epoch": 240,
      "train_loss": 0.540091,
      "test_loss": 0.521511,
      "W1": [
        2.5610274250758707,
        0.5605080830966108,
        1.4015946195902875,
        3.149954223522273,
        2.555976850118875,
        -1.7553378505621353,
        1.381559033343537,
        -0.08917829374423955,
        -0.6615735531706537,
        0.5285745978482614,
        0.2062646413262039,
        2.0580384232898434,
        1.1377399099319971,
        0.22806364778576452,
        0.6361190598244709,
        0.48798514563142475
      ],
      "b1": [
        -0.20809718578661007,
        0.002657729644614365,
        -0.06726847246729391,
        -0.011804470008087674,
        0.1536660026305664,
        -0.2217991103358402,
        -0.11771725433039815,
        0.013185044281259148,
        -0.16803632613348993,
        0.11156226938022991,
        -0.009871432341561143,
        -0.04089405391856603,
        -0.17629880781010282,
        -0.14567294110142823,
        -0.031680751857717175,
        -0.0484916250118389
      ],
      "W2": [
        0.8219287488186596,
        -0.012830836439695691,
        0.2670079142450355,
        0.03609747273751399,
        -0.6436805972041925,
        1.1348970611972207,
        0.4645830720887993,
        -0.17574284864150083,
        1.0404436441038132,
        -0.46800536483642535,
        0.039180386457731003,
        0.15785271963892694,
        0.6805817570283397,
        0.5589807730623799,
        0.12583883407845375,
        0.19051037452628267
      ],
      "b2": -0.3829940435379939,
      "dW1": [
        -0.004788236442525594,
        8.299843526187432e-05,
        -0.0017244106609242173,
        -0.00023249861152476077,
        0.003941997017426514,
        0.06237101187730611,
        -0.0027064906882447934,
        -0.009412671700127235,
        0.054895278891501205,
        0.0021555070231110626,
        -0.0002530376017802296,
        -0.001019195212423673,
        -0.0022718570161263524,
        -0.0024097317023976834,
        -0.0008127070459302901,
        -0.0010149062442802673
      ],
      "db1": [
        0.11190710811106021,
        -0.0016157086760746917,
        0.033568648097764574,
        0.004525989226551533,
        -0.0732115639734318,
        0.21699794091826785,
        0.06325409149829603,
        -0.025672634071855084,
        0.2103755608824112,
        -0.04760058655661008,
        0.004925816339543126,
        0.019840404727282265,
        0.10680540947446682,
        0.09360622092800956,
        0.015820753982572724,
        0.026990190832035268
      ],
      "dW2": [
        -0.043187386104728775,
        -0.0032878771028353945,
        -0.017493554007094105,
        -0.02183164744323675,
        0.0017828932527657604,
        -0.13873813198466028,
        -0.024039020474307206,
        -0.0028712882475805616,
        -0.0686776527792581,
        0.008889056154261683,
        -0.0025709032310998834,
        -0.018426174175005305,
        -0.03138831136837394,
        -0.025304676597347846,
        -0.00808386211562075,
        -0.009452801002439476
      ],
      "db2": 0.2982440565682715
    },
    {
      "epoch": 260,
      "train_loss": 0.515569,
      "test_loss": 0.50065,
      "W1": [
        2.5614761360740994,
        0.5605003473533281,
        1.4017579489227976,
        3.149976836805707,
        2.555606774160851,
        -1.761292992216577,
        1.381812651609829,
        -0.08830178265167632,
        -0.6667470260596199,
        0.5284009322207829,
        0.20628860816264646,
        2.0581352032353806,
        1.1379347933932782,
        0.22821035711959675,
        0.6361932774725583,
        0.4880792535886378
      ],
      "b1": [
        -0.21876702601060824,
        0.002808358535940855,
        -0.07044878134876514,
        -0.012244788516682594,
        0.16050686227389357,
        -0.24276630459425252,
        -0.12374800874154344,
        0.015496673665461525,
        -0.18853342575926482,
        0.11584874575481766,
        -0.010338108728266461,
        -0.04277852862887987,
        -0.186605735612175,
        -0.15491893896971023,
        -0.03323441858607819,
        -0.051073860683063244
      ],
      "W2": [
        0.8260842101272878,
        -0.012521403063361573,
        0.2686795706397072,
        0.0381612688710328,
        -0.6438787940021369,
        1.1483289022742453,
        0.4668971353321401,
        -0.17548784559019998,
        1.0472266246773672,
        -0.4688489802821697,
        0.039426053396723594,
        0.15960419276594656,
        0.6836450862713492,
        0.5615173745047428,
        0.12661202791000803,
        0.19142326771266288
      ],
      "b2": -0.41128291351481283,
      "dW1": [
        -0.004213656206325772,
        7.235259780282181e-05,
        -0.001550245153102578,
        -0.00021968664925030258,
        0.003482549697060841,
        0.057081078065895845,
        -0.002381537872484303,
        -0.008198386159567432,
        0.04884548673154858,
        0.0015159637025608796,
        -0.000227482949437959,
        -0.0009206876980704191,
        -0.0016578358585233426,
        -0.0013521131914440501,
        -0.0006973134429440224,
        -0.0008741763752928827
      ],
      "db1": [
        0.10212218562434762,
        -0.0014118463976227251,
        0.03025057981753071,
        0.0042868371526218856,
        -0.06420400354668082,
        0.20313588359755314,
        0.05771895968165107,
        -0.02091994885016122,
        0.20063709463845897,
        -0.039433016038337765,
        0.0044389696076959535,
        0.017965762796779385,
        0.09978976713990634,
        0.09038950175860958,
        0.014917577117826854,
        0.024796609460963966
      ],
      "dW2": [
        -0.040056371175099775,
        -0.0029194860085715937,
        -0.01600746431711103,
        -0.019556989216383325,
        0.0021502606972342297,
        -0.13037504007133177,
        -0.022315942758294273,
        -0.002292127473048265,
        -0.06703768293798981,
        0.00801913665617162,
        -0.002352418561907814,
        -0.016686421053963743,
        -0.029931507100886982,
        -0.025420375423934032,
        -0.0074129037845469675,
        -0.008830889227186615
      ],
      "db2": 0.26937991103004266
    },
    {
      "epoch": 280,
      "train_loss": 0.494486,
      "test_loss": 0.482631,
      "W1": [
        2.561871087697011,
        0.5604935854135207,
        1.401897709373806,
        3.1499981424669494,
        2.555279513974106,
        -1.7667510500161283,
        1.3820151239205092,
        -0.08753309321689043,
        -0.6713070860356327,
        0.5282711296052635,
        0.20630916857592305,
        2.0582227154284682,
        1.1380614094996342,
        0.22831602954688063,
        0.636259134894811,
        0.4881601973862773
      ],
      "b1": [
        -0.22850115691740738,
        0.002940022676542317,
        -0.07345626125599383,
        -0.012659627506625328,
        0.1664914276299956,
        -0.26237431576245024,
        -0.1294792404718657,
        0.0173986271431199,
        -0.20823353723078425,
        0.11943527653866753,
        -0.010778393890667565,
        -0.04448248864508641,
        -0.19630445483280023,
        -0.16377398468959126,
        -0.03465159243527508,
        -0.05344627442739328
      ],
      "W2": [
        0.8299327416616493,
        -0.012246028826116888,
        0.2702091909141611,
        0.040012520320187935,
        -0.6440981741425522,
        1.160951155744817,
        0.469044159201056,
        -0.17528028358606831,
        1.0538421627805326,
        -0.4696013664603859,
        0.039650812817080584,
        0.16119056854383285,
        0.6865626270446207,
        0.5640642223919264,
        0.1273206060675553,
        0.1922748223610893
      ],
      "b2": -0.43680480367028657,
      "dW1": [
        -0.0037368325844989413,
        6.381362387931927e-05,
        -0.001331678658774968,
        -0.000207820953808885,
        0.003103713422189059,
        0.05242800118484863,
        -0.0018469719204393612,
        -0.007189396410708525,
        0.04300672377679232,
        0.0011176700211193713,
        -0.00019541201411668466,
        -0.0008386648356272838,
        -0.0006033689111891553,
        -0.0005239602624942559,
        -0.0006274801511459956,
        -0.0007571326454900119
      ],
      "db1": [
        0.0931337744207247,
        -0.0012342598476638442,
        0.028682181520584743,
        0.004019597120429921,
        -0.056023920305987844,
        0.18977133159682208,
        0.05556949559217979,
        -0.017040847477808808,
        0.19301453059066045,
        -0.03273305556753655,
        0.004208855359560845,
        0.016221149487136672,
        0.09648308861275096,
        0.08734550976315326,
        0.013514896763675437,
        0.02277970701159533
      ],
      "dW2": [
        -0.03713302536769057,
        -0.002622207806325043,
        -0.014694987153493905,
        -0.01766952629130783,
        0.002143972182053533,
        -0.12257161591647696,
        -0.02075355948828722,
        -0.0019084572796798207,
        -0.0653690504333559,
        0.00705690925334417,
        -0.0021592127052321277,
        -0.015184199606982321,
        -0.028525078209911237,
        -0.025510671556466018,
        -0.00680855401631663,
        -0.008242549550349376
      ],
      "db2": 0.24273432984382126
    },
    {
      "epoch": 300,
      "train_loss": 0.476088,
      "test_loss": 0.467023,
      "W1": [
        2.562193149424811,
        0.5604875597252684,
        1.4020246610107625,
        3.1500184217413385,
        2.5549850685093958,
        -1.771743531335366,
        1.3821877624888619,
        -0.0868572937486506,
        -0.6753191713931477,
        0.5281822770147773,
        0.20632779766804799,
        2.0583031491610235,
        1.138097080906798,
        0.22827686284147952,
        0.6363189511359897,
        0.48822111418226743
      ],
      "b1": [
        -0.23772356562907754,
        0.0030550961003294463,
        -0.07617870567430579,
        -0.01304684445825415,
        0.17169698829721497,
        -0.28100063566269057,
        -0.13479507157615597,
        0.018921657030576033,
        -0.22722400674319623,
        0.12236052779297572,
        -0.011177889861793905,
        -0.04601843085711618,
        -0.20564873613618162,
        -0.1724367889777513,
        -0.03593433609500071,
        -0.05571449035506499
      ],
      "W2": [
        0.8335074780278101,
        -0.011995952728893134,
        0.2716175064079097,
        0.04169952509824954,
        -0.6442956343524993,
        1.172852512374251,
        0.47104485336931795,
        -0.17510141021322573,
        1.0603013123053708,
        -0.47025363260318076,
        0.039857741960841506,
        0.16264223974945402,
        0.6893485469901773,
        0.5666212722834055,
        0.1279732003382371,
        0.19307112610897514
      ],
      "b2": -0.459765119484098,
      "dW1": [
        -0.002858206024411756,
        5.7025639400604176e-05,
        -0.0012115193335900248,
        -0.0001976486034483381,
        0.00279695981692794,
        0.04809465105760387,
        -0.0016152773713199696,
        -0.006350887306670322,
        0.037557037438836156,
        0.0004111735221356428,
        -0.00017778091718333774,
        -0.0007720600769337404,
        -0.00013241870654352728,
        -3.529572737605985e-05,
        -0.0005708123872169429,
        -0.000536275147599556
      ],
      "db1": [
        0.09030240733318538,
        -0.0010783709456821083,
        0.025942879008074397,
        0.003737590909170498,
        -0.04857983025996234,
        0.18109395459932515,
        0.05103321240498505,
        -0.013442531535899976,
        0.18731069267436426,
        -0.02503379904986755,
        0.0038069131020509097,
        0.01459987409238271,
        0.09076411194579453,
        0.08435206439131701,
        0.0122230956513075,
        0.022057312235365088
      ],
      "dW2": [
        -0.03449929898308561,
        -0.002387884976851346,
        -0.013520544009300826,
        -0.01612947062126674,
        0.0018361100977853928,
        -0.1159485797335065,
        -0.01931975977574646,
        -0.0017039073144494883,
        -0.06390864101628031,
        0.006045722038295245,
        -0.0019866030681674847,
        -0.013901028531024345,
        -0.027241299147837274,
        -0.025627636225710886,
        -0.0062661185029393406,
        -0.007710090857706835
      ],
      "db2": 0.21803452060963602
    },
    {
      "epoch": 320,
      "train_loss": 0.46014,
      "test_loss": 0.453519,
      "W1": [
        2.562451905486602,
        0.5604822784535878,
        1.4021375963691491,
        3.150037262222696,
        2.554725778762313,
        -1.7763623911390545,
        1.3823339924548108,
        -0.08625979563503233,
        -0.6788549530618669,
        0.5281629332376628,
        0.20634437009452278,
        2.0583756663019837,
        1.1380815490613645,
        0.22825870304645696,
        0.6363721589779132,
        0.4882681135691771
      ],
      "b1": [
        -0.24636655260161727,
        0.0031556890019315124,
        -0.07864086862679272,
        -0.013405712098802251,
        0.17619895787539994,
        -0.29847726997995333,
        -0.13967945312825739,
        0.020111096838366857,
        -0.24550544985966474,
        0.1245657800546806,
        -0.011539194024141925,
        -0.047399693076530136,
        -0.21444982708620763,
        -0.18072330857106658,
        -0.03709434794821892,
        -0.05783359867266769
      ],
      "W2": [
        0.836804359855163,
        -0.011773252375494583,
        0.27289875048963685,
        0.04321049952445046,
        -0.6444820935576705,
        1.1840981899502014,
        0.47289229665176513,
        -0.17493829216064383,
        1.0666085333487183,
        -0.47081031331227136,
        0.04004599327611781,
        0.16395137353736075,
        0.691997014699835,
        0.5691877887270793,
        0.12856718658761254,
        0.19381119028149402
      ],
      "b2": -0.4803710552970044,
      "dW1": [
        -0.0023682978289605167,
        4.9426729519155247e-05,
        -0.0010631190807478853,
        -0.00018094615355716717,
        0.0024282788676524836,
        0.04442757171477452,
        -0.0013383671555025518,
        -0.005490591267809557,
        0.033350259205403125,
        1.2802669030085798e-05,
        -0.00015600528628156645,
        -0.0006874308196276333,
        0.00039259570031015614,
        0.00028293313797326733,
        -0.0005008550225234958,
        -0.00041606818271493207
      ],
      "db1": [
        0.08302352915203207,
        -0.0009431980699855398,
        0.023459015595770284,
        0.003452950750874301,
        -0.04189950809257085,
        0.16916076251004583,
        0.04691807051977012,
        -0.009915297660682096,
        0.17884721348151203,
        -0.01943773494038253,
        0.0034424463921081706,
        0.013118072521267728,
        0.08558926158585461,
        0.08146029678868892,
        0.011051975265398273,
        0.020429176860224354
      ],
      "dW2": [
        -0.03166019500038371,
        -0.002098723660738152,
        -0.01221502607201072,
        -0.014284417943309327,
        0.0018158335375946244,
        -0.10921121304364803,
        -0.017750597420613835,
        -0.0015710667069792476,
        -0.06225511782811207,
        0.005124689998531679,
        -0.0017947014014966147,
        -0.012422538793788018,
        -0.025830319629951234,
        -0.025698575189457295,
        -0.005664310345043281,
        -0.007134843702795733
      ],
      "db2": 0.195542351843303
    },
    {
      "epoch": 340,
      "train_loss": 0.446308,
      "test_loss": 0.441499,
      "W1": [
        2.562669812971207,
        0.5604776250746547,
        1.4022382707417653,
        3.1500547364528626,
        2.5544998361972775,
        -1.7806223283382678,
        1.3824571340723146,
        -0.08574368272419472,
        -0.6819351440632407,
        0.5281782237941051,
        0.2063591433952524,
        2.0584412168407256,
        1.1379668303697268,
        0.22820529380142088,
        0.6364195868728466,
        0.48830501417459465
      ],
      "b1": [
        -0.2543127098328838,
        0.0032436345221486737,
        -0.0808651500118154,
        -0.013735943722725383,
        0.18002492366780284,
        -0.3147921586246803,
        -0.1441699022122402,
        0.02096949884144455,
        -0.26309245357932876,
        0.1262378145504906,
        -0.011865592660320317,
        -0.04863851561698172,
        -0.2230388118759672,
        -0.18874886736705396,
        -0.03814221123814562,
        -0.0597968414730208
      ],
      "W2": [
        0.8398417204657614,
        -0.01157400581409119,
        0.27406324603489574,
        0.04456777176889055,
        -0.6446432669423081,
        1.1946706014361657,
        0.4745959669116708,
        -0.17478514596589212,
        1.072742238186802,
        -0.47127245333236045,
        0.040217085714992155,
        0.16513291489250506,
        0.6945163596706109,
        0.5717627919096606,
        0.12910725952542326,
        0.19449828140968814
      ],
      "b2": -0.49882339016281496,
      "dW1": [
        -0.0019811061487699753,
        4.35828397122912e-05,
        -0.0009467909788066654,
        -0.00016744608639108257,
        0.0019518389437394139,
        0.04106772244695194,
        -0.0011195277505834343,
        -0.004884570243828389,
        0.028701321168192642,
        -0.0003161713380133678,
        -0.0001389356842813759,
        -0.0006211062387515304,
        0.00160424141008806,
        0.00037575149652310444,
        -0.0004460210118596014,
        -0.00032033180807890943
      ],
      "db1": [
        0.07635694864397963,
        -0.000824531150683277,
        0.021182268394224248,
        0.0031678641226885323,
        -0.03316760588701343,
        0.15777472299924153,
        0.04314949151507319,
        -0.00740994418145759,
        0.1730061108912936,
        -0.014352856715436573,
        0.0031083660700830236,
        0.011750529454140459,
        0.08495769075250575,
        0.07871937645835386,
        0.009978693285165692,
        0.018938149318725634
      ],
      "dW2": [
        -0.029137081615903407,
        -0.0018782173944523577,
        -0.011088318954403181,
        -0.012828788386886378,
        0.0015194690635445124,
        -0.10271635142263602,
        -0.01635196865012139,
        -0.0015093998056987675,
        -0.06054911986350119,
        0.004196989697499223,
        -0.001629111534700101,
        -0.011202940487371055,
        -0.024607360721711852,
        -0.025788291310799565,
        -0.005143780170138775,
        -0.006618497466105475
      ],
      "db2": 0.17483597347047863
    },
    {
      "epoch": 360,
      "train_loss": 0.434266,
      "test_loss": 0.430879,
      "W1": [
        2.56284859932333,
        0.560473549334839,
        1.4023271107324342,
        3.150070749467453,
        2.5543194016018735,
        -1.7845700742073924,
        1.3825581655229087,
        -0.08528362952136788,
        -0.6845765188235802,
        0.5282260961215007,
        0.20637218014256256,
        2.0584999713363157,
        1.137783518732781,
        0.228122035967086,
        0.6364614369689958,
        0.48833228250869803
      ],
      "b1": [
        -0.26162663158927657,
        0.0033205432995632744,
        -0.08287343267829303,
        -0.014038106229619315,
        0.18304608492633298,
        -0.32999698924946497,
        -0.14830296914977104,
        0.02158791108766543,
        -0.2801108526200836,
        0.12742867035526229,
        -0.01216029635963077,
        -0.04974720409867213,
        -0.23131495309047354,
        -0.19654189000709,
        -0.03908825830619708,
        -0.06161870054987212
      ],
      "W2": [
        0.8426278767917987,
        -0.011397149508414101,
        0.27511544289761636,
        0.045778065705176965,
        -0.6447786997097575,
        1.204619789119257,
        0.4761604378979061,
        -0.1746352049266813,
        1.0787107020136562,
        -0.47164638569448497,
        0.04037167344645035,
        0.16619218381529582,
        0.6969167520464388,
        0.5743470844319574,
        0.1295954681517685,
        0.19513397678309755
      ],
      "b2": -0.5152975196156522,
      "dW1": [
        -0.0015977942763308883,
        3.8027886403622316e-05,
        -0.0008304079159589407,
        -0.0001524427623276431,
        0.0016594604478021094,
        0.03809177828118001,
        -0.0009028981018114317,
        -0.004353937640079934,
        0.02460244242918152,
        -0.0006326477867423901,
        -0.00012185775450026149,
        -0.0005539490403565417,
        0.0020506772980943347,
        0.0003464399959403532,
        -0.00039117175467313957,
        -0.0002261393048535081
      ],
      "db1": [
        0.07032969675952418,
        -0.0007212372356091419,
        0.01912256193658992,
        0.0028912308015976566,
        -0.027637286184310342,
        0.14696240343831685,
        0.039742631855565175,
        -0.0051061139241938775,
        0.1671961941304307,
        -0.00977761184804375,
        0.0028061298707564835,
        0.010506202482424317,
        0.0808454524400913,
        0.07619280205806073,
        0.009007869461292024,
        0.017590423878471508
      ],
      "dW2": [
        -0.026671131772833617,
        -0.0016589737774925853,
        -0.009988253913273418,
        -0.011389725639358209,
        0.0012659850007287199,
        -0.09663301595554392,
        -0.01498545498666122,
        -0.0014962803345072336,
        -0.05891317972743364,
        0.003349342380986149,
        -0.0014674334004804897,
        -0.010005918455280316,
        -0.023442659382026658,
        -0.025890914238016732,
        -0.004635722606066886,
        -0.006113592893549485
      ],
      "db2": 0.15588600783248577
    },
    {
      "epoch": 380,
      "train_loss": 0.423725,
      "test_loss": 0.421463,
      "W1": [
        2.562989227338284,
        0.5604700158646604,
        1.4024043078228858,
        3.1500851925087576,
        2.5541680001246196,
        -1.7882228082969036,
        1.3826376323984548,
        -0.08487205549636441,
        -0.6868023039946689,
        0.5283049474261229,
        0.20638350841082573,
        2.0585519704255173,
        1.137556383614117,
        0.22813834074196,
        0.6364978004591945,
        0.48835020168450854
      ],
      "b1": [
        -0.2683683674701415,
        0.003387828628691718,
        -0.08468612642513569,
        -0.014313146685074008,
        0.18554468904351287,
        -0.34426985580979447,
        -0.15211262656194577,
        0.021985329421000087,
        -0.2966431328463878,
        0.1281868356473713,
        -0.012426299666621614,
        -0.05073740808576176,
        -0.23920093097809472,
        -0.20398528774458258,
        -0.03994212285574098,
        -0.06331263136659683
      ],
      "W2": [
        0.8451708171933083,
        -0.011242177133286508,
        0.2760591205317347,
        0.04684523115827748,
        -0.6448928498767389,
        1.2139919920239632,
        0.47759015953316064,
        -0.17448416696685956,
        1.0845238614702297,
        -0.47194003366804294,
        0.04051031170594018,
        0.16713294190493175,
        0.6992022426858869,
        0.5769409509761926,
        0.13003356836298363,
        0.19571987354154705
      ],
      "b2": -0.529959970048568,
      "dW1": [
        -0.0012421821195679576,
        3.3048950288277795e-05,
        -0.0007219247940250945,
        -0.0001374753841901033,
        0.0013896145345054442,
        0.034610627910074486,
        -0.0007019342403954271,
        -0.003934608050785047,
        0.020855436948889167,
        -0.0009211952686381964,
        -0.00010593887660163923,
        -0.0004908767854224739,
        0.002461493871455868,
        -0.00013411079813274197,
        -0.0003400527849338657,
        -0.00013892581272165107
      ],
      "db1": [
        0.06486563463090447,
        -0.0006309704115727829,
        0.017254565324246754,
        0.00262467942209721,
        -0.02267077467594469,
        0.14269913519754326,
        0.036654375598522186,
        -0.0029651442583025914,
        0.16236702421385946,
        -0.005671751779457992,
        0.0025320217311122777,
        0.009371817398975127,
        0.07711994366115153,
        0.07344360966057584,
        0.008127526634207067,
        0.016368816365128984
      ],
      "dW2": [
        -0.024342417818732573,
        -0.0014567206847691944,
        -0.008956641743693296,
        -0.010056471189263685,
        0.0010149880510317566,
        -0.09139474227730361,
        -0.0136944437026148,
        -0.001540873873316132,
        -0.05751018876297459,
        0.002571479044484541,
        -0.0013158191258727994,
        -0.008890838372352612,
        -0.022339461796457676,
        -0.025979116758523876,
        -0.004159150247311505,
        -0.0056356888180543845
      ],
      "db2": 0.13841061023919826
    },
    {
      "epoch": 400,
      "train_loss": 0.414259,
      "test_loss": 0.412967,
      "W1": [
        2.56309912779972,
        0.560466908035157,
        1.4024721806349687,
        3.1500983441706314,
        2.5540398440255974,
        -1.7916104348419755,
        1.3826683624451486,
        -0.08449287737680593,
        -0.6886774591479649,
        0.5284089288947675,
        0.2063934684267388,
        2.0585985551408923,
        1.1372199271899277,
        0.22832828823270254,
        0.6365297702903663,
        0.4883455946012121
      ],
      "b1": [
        -0.2745893980951412,
        0.0034466634596765,
        -0.08632084102555512,
        -0.014562113512491,
        0.18757260080886395,
        -0.3580098385275091,
        -0.1559122513154998,
        0.022174812209000208,
        -0.3127612058202152,
        0.12855853436065093,
        -0.0126661863461182,
        -0.05161929309693737,
        -0.2470772847185334,
        -0.21103106720586712,
        -0.040712115209673015,
        -0.06500474937633663
      ],
      "W2": [
        0.8474981775239934,
        -0.011104312206185778,
        0.27690876228786054,
        0.04779712113321872,
        -0.64497176823447,
        1.2229255822043597,
        0.4789019536061323,
        -0.17432402233523422,
        1.0902211351908504,
        -0.4721574952758545,
        0.04063513095563107,
        0.16797464039070947,
        0.701388368332513,
        0.5795425204618511,
        0.13042817408347776,
        0.19626199009344011
      ],
      "b2": -0.5429320063164536,
      "dW1": [
        -0.000950588510043919,
        2.90643732170144e-05,
        -0.0006333264161525326,
        -0.0001249138153413508,
        0.0011695270185140896,
        0.03301373250112244,
        -0.0001642328198890649,
        -0.0036358223507458494,
        0.016846182539838134,
        -0.0011563028943019187,
        -9.293782390223568e-05,
        -0.00043929584658447974,
        0.0036285821561521762,
        -0.0024167886115761816,
        -0.0002983068216845632,
        0.00013395379390189564
      ],
      "db1": [
        0.05989402102088825,
        -0.0005515154738803894,
        0.015555600782852296,
        0.002370321270918122,
        -0.018198545497146685,
        0.13280457555609262,
        0.03722365930215747,
        -0.0009701379424704524,
        0.15982274636801522,
        -0.0020158767889513042,
        0.002282714962424686,
        0.008335925746401249,
        0.07761926262532828,
        0.06900158718664624,
        0.007326935543154243,
        0.016797834255793006
      ],
      "dW2": [
        -0.022262293093468402,
        -0.0012951607228250533,
        -0.008053582759929054,
        -0.008962488555715506,
        0.0006587409282914902,
        -0.08719866283712704,
        -0.012579959511036624,
        -0.0016391649818324329,
        -0.05638737062815585,
        0.001842920902052068,
        -0.0011831130708635047,
        -0.007945220872453335,
        -0.021419752366122438,
        -0.026042706220760867,
        -0.003741349165466149,
        -0.005223878443687911
      ],
      "db2": 0.12218557829454768
    },
    {
      "epoch": 420,
      "train_loss": 0.405869,
      "test_loss": 0.405395,
      "W1": [
        2.563178180195678,
        0.5604642148077167,
        1.4025305928325715,
        3.1501100937137876,
        2.553934945255659,
        -1.7948147685640383,
        1.3826752728774465,
        -0.08414643735607134,
        -0.6902102096934326,
        0.528536925864532,
        0.20640204016913355,
        2.0586395926944285,
        1.1368374822800447,
        0.22864070629772637,
        0.6365572828314011,
        0.4883280540476558
      ],
      "b1": [
        -0.28033951835746673,
        0.0034980883936951805,
        -0.08779465475366188,
        -0.01478647282243951,
        0.18917892616641085,
        -0.370807648241925,
        -0.15950365305553219,
        0.022176194950749496,
        -0.32848237192457963,
        0.12858549935996244,
        -0.012882462266749483,
        -0.05240289291167213,
        -0.2546819562412325,
        -0.21776565304669743,
        -0.041406291329467375,
        -0.06663278536228903
      ],
      "W2": [
        0.8496163155113184,
        -0.010983831521590798,
        0.27766678358576186,
        0.04863338862060091,
        -0.645025439032927,
        1.2314062047717427,
        0.4801024922563626,
        -0.1741565328827494,
        1.0957945920712373,
        -0.47230807737308783,
        0.04074648547129842,
        0.1687185521820384,
        0.7034834582544045,
        0.5821495795036229,
        0.13078043106541376,
        0.19676338073840124
      ],
      "b2": -0.5543711607029952,
      "dW1": [
        -0.000653735808281642,
        2.5124510583863125e-05,
        -0.0005420905542390204,
        -0.00011109760234724077,
        0.000946136127953523,
        0.031154365308483922,
        1.2258379809119285e-05,
        -0.0033092213625799567,
        0.013524802255331363,
        -0.0013861526858241439,
        -7.95496013160815e-05,
        -0.0003856501385212747,
        0.003992992365477892,
        -0.0032237203041369598,
        -0.0002553238636770847,
        0.0002108988324537233
      ],
      "db1": [
        0.055405492196511676,
        -0.0004819531936730646,
        0.014022357216112412,
        0.0021311397920349,
        -0.014199737027741674,
        0.12371571248413123,
        0.034766779537747074,
        0.0008238561486100447,
        0.15583412059330556,
        0.0012542029776288442,
        0.0020577243365166612,
        0.007397768616442774,
        0.07466876877660945,
        0.0664582193057046,
        0.006604509881755884,
        0.015827017242454628
      ],
      "dW2": [
        -0.02023817926048066,
        -0.0011280468297173666,
        -0.007169237023229254,
        -0.007849896209999166,
        0.0004168969110681653,
        -0.08262407627425848,
        -0.01150399578366837,
        -0.0017040578788111715,
        -0.05513495133517214,
        0.0012096985742362978,
        -0.0010531484728336631,
        -0.007003082605303308,
        -0.020542853913891303,
        -0.026094084440305802,
        -0.0033325599837914395,
        -0.004830545190321589
      ],
      "db2": 0.10756195898451322
    },
    {
      "epoch": 440,
      "train_loss": 0.398328,
      "test_loss": 0.398502,
      "W1": [
        2.563196052682506,
        0.5604618748454934,
        1.4025807423876604,
        3.1501205766446074,
        2.553850253759926,
        -1.7978041046925954,
        1.3826661778930989,
        -0.08383016541183652,
        -0.6914018679880011,
        0.5286859118454275,
        0.2064093994235914,
        2.058675767498699,
        1.1364215482845414,
        0.22914084688896963,
        0.6365809028102715,
        0.4883035177822317
      ],
      "b1": [
        -0.2859728409195368,
        0.0035429954284222484,
        -0.08912260520622631,
        -0.014987637955965968,
        0.19040680906832705,
        -0.3829289258473262,
        -0.16286088069043086,
        0.022006034012088286,
        -0.34387188405599234,
        0.1283033834859828,
        -0.013077333891597985,
        -0.05309710506586672,
        -0.26200525072611647,
        -0.22414763381499236,
        -0.04203174377194846,
        -0.06816827510828871
      ],
      "W2": [
        0.8515446680850038,
        -0.010878339946813614,
        0.27834221669857895,
        0.04936867333997348,
        -0.6450513480514452,
        1.239448456601842,
        0.4812016210724327,
        -0.17398232243721498,
        1.1012488252071744,
        -0.4723980883455778,
        0.04084570332044923,
        0.16937570583367864,
        0.7054961480908598,
        0.5847612001731883,
        0.1310944869150516,
        0.19722764407004612
      ],
      "b2": -0.5644125451368374,
      "dW1": [
        0.00027069373282951475,
        2.2044016124323808e-05,
        -0.0004695944814505828,
        -9.992498517994797e-05,
        0.000768692925584423,
        0.02873660266201162,
        0.00015296686645507526,
        -0.0030878446178278333,
        0.010083664201754737,
        -0.0015719768497704147,
        -6.891126646911745e-05,
        -0.0003430048107669762,
        0.004295335918186895,
        -0.006280688302170968,
        -0.00022117139632091666,
        0.00027273224031142216
      ],
      "db1": [
        0.05753338579051022,
        -0.00042027831493109943,
        0.012623512099639848,
        0.0019051113079437863,
        -0.010589350184491279,
        0.1208173968124036,
        0.03251165680466044,
        0.002499419304122336,
        0.1535260170377322,
        0.00418730059081219,
        0.0018524540650206652,
        0.006539529052663782,
        0.0719569111740825,
        0.06183185894460208,
        0.005945469778364841,
        0.014935615227911276
      ],
      "dW2": [
        -0.018489110063175523,
        -0.0009984691971492484,
        -0.006406113331610869,
        -0.0069589232023693215,
        8.153484670114786e-05,
        -0.07897168061934638,
        -0.010554093155971181,
        -0.0018043181541907878,
        -0.05417618555812081,
        0.000621804148255899,
        -0.000941013036414899,
        -0.006218983480437076,
        -0.019770128230760242,
        -0.0261349918030574,
        -0.0029792201776794106,
        -0.004481844922515818
      ],
      "db2": 0.09395851573285575
    },
    {
      "epoch": 460,
      "train_loss": 0.391348,
      "test_loss": 0.392155,
      "W1": [
        2.563160178404133,
        0.5604597776625041,
        1.40262520379659,
        3.1501301951841727,
        2.553779582613817,
        -1.800636993292798,
        1.3826459053623854,
        -0.08352952957406334,
        -0.6922911112692655,
        0.5288499049327943,
        0.2064159239796389,
        2.0587086119266917,
        1.1358811489154697,
        0.22979208051216027,
        0.6366018431113772,
        0.4882740042255434
      ],
      "b1": [
        -0.29152925401282864,
        0.003582065347630671,
        -0.0903164759816299,
        -0.015166828171921108,
        0.19129069927269673,
        -0.39456951367272614,
        -0.16600080172367737,
        0.021673600146062493,
        -0.3590261699141161,
        0.1277446681404402,
        -0.013252530248340064,
        -0.05370898655971439,
        -0.269495352618299,
        -0.2302400915680202,
        -0.04259402938528596,
        -0.06961783473802026
      ],
      "W2": [
        0.853318153259247,
        -0.010782683308045837,
        0.27895033099188427,
        0.05003287903082222,
        -0.6450330367729836,
        1.2471859576096143,
        0.48221478426982495,
        -0.17379587223028625,
        1.1066260685135125,
        -0.4724302142006431,
        0.04093503070918273,
        0.1699668033099741,
        0.7074427376207795,
        0.587376655518704,
        0.1313773090889684,
        0.1976602001393329
      ],
      "b2": -0.5731352377232365,
      "dW1": [
        0.0004904115547448643,
        1.9345178794456493e-05,
        -0.00040482861982486015,
        -8.967179940364803e-05,
        0.0006111410661875025,
        0.02785973754531723,
        0.00027713393176475275,
        -0.002919537873735714,
        0.0072731533264474985,
        -0.0017294062594116737,
        -5.9407243924900714e-05,
        -0.00030476258244325517,
        0.0056157355835423015,
        -0.007594956904403143,
        -0.0001906624748274745,
        0.0003273811203748818
      ],
      "db1": [
        0.0538667532488977,
        -0.00036536634452192526,
        0.011348490032481942,
        0.0016936032436258531,
        -0.007333224665687745,
        0.11256025034605233,
        0.03044036172238234,
        0.004039009748512721,
        0.150760472187789,
        0.00679154778361576,
        0.001665352898791195,
        0.005755955624781324,
        0.07401620012457072,
        0.05922664370907454,
        0.005344807874710162,
        0.014116478942962954
      ],
      "dW2": [
        -0.016914737101366484,
        -0.000883842329363534,
        -0.005708172500726014,
        -0.0061627464553846295,
        -0.0002452779024708085,
        -0.0758023427138161,
        -0.009675731942905441,
        -0.0019074877737058093,
        -0.05337162257434706,
        9.899194813720383e-05,
        -0.0008384596430486583,
        -0.005510191223401885,
        -0.019142886941932093,
        -0.026162435375275486,
        -0.0026559018557879566,
        -0.0041586347045764385
      ],
      "db2": 0.08140047418232771
    },
    {
      "epoch": 480,
      "train_loss": 0.385017,
      "test_loss": 0.3864,
      "W1": [
        2.563099250124534,
        0.5604579878303627,
        1.4026621220726474,
        3.1501385756495144,
        2.553727039830971,
        -1.8033590758979903,
        1.3826114740159108,
        -0.08324865710814837,
        -0.6928907190074445,
        0.5290310820300751,
        0.20642134161811607,
        2.0587369678468415,
        1.1353044701499442,
        0.23059121133499605,
        0.6366192303357917,
        0.48823833402540673
      ],
      "b1": [
        -0.29673947159470976,
        0.0036160180791632098,
        -0.09139011207284058,
        -0.015325811850233852,
        0.1918690052273716,
        -0.4054261380354232,
        -0.16894515901503834,
        0.021196513408090676,
        -0.373915614960908,
        0.12694178757958688,
        -0.013410082899994092,
        -0.05424690752630539,
        -0.2767814945835105,
        -0.23606330230099318,
        -0.043099674557818234,
        -0.07099005049767018
      ],
      "W2": [
        0.8549288370610443,
        -0.010700685884430447,
        0.27948505656823863,
        0.05060584138362235,
        -0.6449967614777085,
        1.254577580826581,
        0.48313734707565087,
        -0.17360211840216794,
        1.111915110502251,
        -0.47241661085872516,
        0.041013573030936196,
        0.17048031735653404,
        0.7093259048345432,
        0.5899942702874695,
        0.1316261980865446,
        0.1980595375830976
      ],
      "b2": -0.580674878279197,
      "dW1": [
        0.0007282439569454048,
        1.645066650288559e-05,
        -0.00033303615734483084,
        -7.773063945824138e-05,
        0.00043914924920265136,
        0.02663692971550119,
        0.0004115446388390301,
        -0.002708538053091807,
        0.004645468376378102,
        -0.0018918496444776459,
        -4.887202856919035e-05,
        -0.0002619584034382755,
        0.0059112139436036226,
        -0.008697334486013217,
        -0.00015684676589764303,
        0.0003858119339628322
      ],
      "db1": [
        0.05056506396142429,
        -0.00031720499228780674,
        0.010203594856164485,
        0.0014988175029597083,
        -0.004438067162180318,
        0.10505005855004836,
        0.028575288249782962,
        0.0054099331990615914,
        0.1476475387068079,
        0.009101585454381842,
        0.0014973460638467576,
        0.005051133540868315,
        0.07185611467898666,
        0.057004971052607864,
        0.00480548678701622,
        0.01337866851370348
      ],
      "dW2": [
        -0.015353886991695126,
        -0.000754208547229596,
        -0.005006525583180925,
        -0.005295076621422645,
        -0.0004186662117586226,
        -0.0722102293723114,
        -0.008806925257612161,
        -0.0019603313810434733,
        -0.05246009792884983,
        -0.000328006702541718,
        -0.0007353479308572775,
        -0.00477062523912794,
        -0.018543159269136557,
        -0.02618519137603957,
        -0.0023314369018409935,
        -0.0038400686445150163
      ],
      "db2": 0.0701541472911109
    },
    {
      "epoch": 500,
      "train_loss": 0.379241,
      "test_loss": 0.381123,
      "W1": [
        2.5630154724202376,
        0.5604564743685435,
        1.402692113545381,
        3.1501457882594495,
        2.5536910283328877,
        -1.8059607718270692,
        1.382564128910335,
        -0.08298833698521325,
        -0.6931993750821616,
        0.5292277453469318,
        0.20642574277755765,
        2.0587611843123534,
        1.1346995665942718,
        0.23151934104126418,
        0.6366333549898988,
        0.4881970569329226
      ],
      "b1": [
        -0.30163633917264215,
        0.003645460101146805,
        -0.09235529051586074,
        -0.015466130472283538,
        0.19217452829431597,
        -0.4155598564413341,
        -0.17171251255430797,
        0.020589289552848236,
        -0.38857055288393133,
        0.12592161344222333,
        -0.013551719968775367,
        -0.054718017159442404,
        -0.2838624143071902,
        -0.241654669238262,
        -0.04355423072436598,
        -0.07229222427317115
      ],
      "W2": [
        0.8563894771091971,
        -0.01063119035933522,
        0.27995239760297946,
        0.051095248099698065,
        -0.6449451339654657,
        1.2616147991301179,
        0.48397639499079936,
        -0.17340423123542115,
        1.117115855239423,
        -0.4723637964566263,
        0.04108221270025477,
        0.17092273970861702,
        0.7111523195797895,
        0.5926145205160748,
        0.13184392805765713,
        0.19842826499708968
      ],
      "b2": -0.5871455397548787,
      "dW1": [
        0.0009452846568007399,
        1.3842113076081288e-05,
        -0.0002670508451464385,
        -6.647831113815389e-05,
        0.00028215848384927425,
        0.025584864016642873,
        0.000534213464063571,
        -0.002526431361828699,
        0.0014893987966499225,
        -0.002038251582184944,
        -3.918894434083698e-05,
        -0.00022245316329195033,
        0.006179168023783337,
        -0.009929459610849175,
        -0.00012576802574038645,
        0.0004390539933281099
      ],
      "db1": [
        0.04757707298766651,
        -0.00027471707305945986,
        0.009171302417946014,
        0.0013193597651912855,
        -0.0018551800795735289,
        0.09800331660319556,
        0.026887470126477183,
        0.006659392493910497,
        0.146119497378794,
        0.01115553788205838,
        0.0013458622824907413,
        0.0044149098895876655,
        0.0698968022025057,
        0.054824835995452126,
        0.0043192396486915995,
        0.012710573319667207
      ],
      "dW2": [
        -0.01391637941938749,
        -0.000635374904803674,
        -0.004362465401541796,
        -0.004499719296462451,
        -0.0005644561473339277,
        -0.06888309588056224,
        -0.008006661368447375,
        -0.002001162968223456,
        -0.051665872533090115,
        -0.0006915531065923627,
        -0.0006406992723986902,
        -0.00409272108238469,
        -0.01800820744973767,
        -0.0262151084595445,
        -0.002033590803569931,
        -0.003546797586280546
      ],
      "db2": 0.05989748035096268
    },
    {
      "epoch": 520,
      "train_loss": 0.37382,
      "test_loss": 0.375997,
      "W1": [
        2.562911007163405,
        0.5604552083698455,
        1.402715790618967,
        3.150151912142084,
        2.553669987948586,
        -1.8083774123546437,
        1.382505090976778,
        -0.08273702331829959,
        -0.6933011904019384,
        0.5294378992122901,
        0.20642921732215092,
        2.058781612794341,
        1.134069214912806,
        0.23256104943584596,
        0.6366445056628608,
        0.48814955439691576
      ],
      "b1": [
        -0.30624979240808575,
        0.003670922112059987,
        -0.09322277303310358,
        -0.015589303821460801,
        0.1922370040872658,
        -0.4256087744320172,
        -0.17431977710312196,
        0.019858553098817736,
        -0.40296937013579914,
        0.12471015750896342,
        -0.013679020613849267,
        -0.055128895102861696,
        -0.29075723032944284,
        -0.24704522215059835,
        -0.0439627698865362,
        -0.07353867999988827
      ],
      "W2": [
        0.8577126162583093,
        -0.010573058337317765,
        0.28035820847518794,
        0.051508636896794316,
        -0.6448804394444153,
        1.2684069755015328,
        0.4847388921782033,
        -0.1731987120104021,
        1.1222643171357032,
        -0.4722778146258153,
        0.04114181012626651,
        0.17130040994485576,
        0.712928577770455,
        0.5952382758202007,
        0.1320332035066832,
        0.1987689541546579
      ],
      "b2": -0.5926128386240229,
      "dW1": [
        0.0011477377857414851,
        1.1428775827384283e-05,
        -0.0002049263699828571,
        -5.564336581865225e-05,
        0.00013544707565437894,
        0.023869956772926776,
        0.0006486464730785148,
        -0.0024928133955611958,
        0.0005459839701070918,
        -0.0021640347019935315,
        -3.007239005773689e-05,
        -0.00018509988198353589,
        0.006425525208393457,
        -0.011205897764385967,
        -9.650903890378801e-05,
        0.0007195653718822742
      ],
      "db1": [
        0.044881458527191415,
        -0.00023729249111772803,
        0.008244139675037033,
        0.0011553077152537314,
        0.0004387935924187623,
        0.0982658722049804,
        0.025364852618731726,
        0.007875040066838484,
        0.1421005438395703,
        0.012935860296387575,
        0.0012098051803626332,
        0.0038431773240515266,
        0.06812460440765819,
        0.052755376543787764,
        0.003882535940557564,
        0.01364225208503381
      ],
      "dW2": [
        -0.012584752648838043,
        -0.0005233251679988143,
        -0.003765632129581295,
        -0.003753919347375817,
        -0.0006671598334745676,
        -0.06698166493519052,
        -0.007265526693324392,
        -0.002095593272397585,
        -0.05128282386908725,
        -0.0009917179131492503,
        -0.0005529891901773229,
        -0.0034613824787814926,
        -0.017531709226897285,
        -0.026254901249459818,
        -0.0017576564615328152,
        -0.0032756533993397313
      ],
      "db2": 0.050102265939354046
    },
    {
      "epoch": 540,
      "train_loss": 0.368795,
      "test_loss": 0.371216,
      "W1": [
        2.5627882147061136,
        0.5604541598117044,
        1.4027338381194674,
        3.1501570477527028,
        2.553662215055719,
        -1.8107235231135823,
        1.3824356933612654,
        -0.08249485036633004,
        -0.6932258245340523,
        0.5296592244969806,
        0.20643186574517408,
        2.058798652940504,
        1.1334162884943684,
        0.23371461509169142,
        0.6366530049948218,
        0.4880754824157099
      ],
      "b1": [
        -0.3106071538349147,
        0.003692871577439874,
        -0.09400241777257012,
        -0.01569681394114122,
        0.19208352693677852,
        -0.43509990825722594,
        -0.17678239027435436,
        0.01901444826217418,
        -0.4170752081540012,
        0.1233324244894363,
        -0.013793431421551584,
        -0.05548560855734886,
        -0.29748324137316956,
        -0.25225088277565455,
        -0.04432993752819199,
        -0.0748745082684524
      ],
      "W2": [
        0.8589112440282878,
        -0.010525015297352856,
        0.28070856998183913,
        0.0518542630537333,
        -0.6448039213226955,
        1.2749562864865993,
        0.4854320370702031,
        -0.1729882362259443,
        1.127355961251406,
        -0.4721640667144378,
        0.0411932590827142,
        0.1716200775987391,
        0.7146614824460426,
        0.5978666854535188,
        0.1321968298502055,
        0.19908529891375618
      ],
      "b2": -0.5971598086158638,
      "dW1": [
        0.0013271815465039048,
        9.304113917909954e-06,
        -0.0001495012291435685,
        -4.58162964210244e-05,
        5.331501484313189e-06,
        0.023150995367521923,
        0.0007500837416434571,
        -0.00236606546774514,
        -0.0020303015624096865,
        -0.0022719998967367754,
        -2.193891927262069e-05,
        -0.00015166882628823205,
        0.006644048486066041,
        -0.012672637512390558,
        -7.040610443592244e-05,
        0.0007659478516101976
      ],
      "db1": [
        0.042443815263752384,
        -0.0002042164296535783,
        0.007410214370427715,
        0.0010056240236956226,
        0.002477037031603572,
        0.09192917215446925,
        0.02398798856608845,
        0.008938639037641395,
        0.1404165515293814,
        0.014499357421237277,
        0.00108742982112556,
        0.0033289861310390675,
        0.06651475415144573,
        0.05064845830867895,
        0.0034897661366782512,
        0.013113014000357547
      ],
      "dW2": [
        -0.011379171866945953,
        -0.00042372342660012587,
        -0.0032277814844783106,
        -0.003088584095117891,
        -0.0007590534811930255,
        -0.06423288527253605,
        -0.006594226714976149,
        -0.002113188006651809,
        -0.050623774678809616,
        -0.001240934051109881,
        -0.00047394863499404787,
        -0.0028956565102454326,
        -0.017120939133116318,
        -0.026306416008659038,
        -0.0015089305866572283,
        -0.0030498179886431706
      ],
      "db2": 0.04141405138282378
    },
    {
      "epoch": 560,
      "train_loss": 0.364104,
      "test_loss": 0.366726,
      "W1": [
        2.5626490755114912,
        0.5604533042593246,
        1.402746826932376,
        3.150161281301167,
        2.5536662913241854,
        -1.8130006094523696,
        1.3823570545842483,
        -0.08223758990505582,
        -0.692898360817308,
        0.5298741923684103,
        0.20643377182051895,
        2.0588126384481362,
        1.1327432343775352,
        0.23496338325892147,
        0.6366591219222929,
        0.4879971744745171
      ],
      "b1": [
        -0.3147328445803683,
        0.003711713342313894,
        -0.09470304538184703,
        -0.01579004969984087,
        0.1917381734262083,
        -0.44398026840447535,
        -0.17911414981685242,
        0.018187286966614234,
        -0.431023525385725,
        0.12187797444629445,
        -0.013896246746778708,
        -0.05579361154515699,
        -0.3040559451704084,
        -0.25729917860271156,
        -0.04465988975999576,
        -0.07615998167811058
      ],
      "W2": [
        0.8599968267797182,
        -0.010486015726297829,
        0.28100877801220747,
        0.052139012535069564,
        -0.6447172681870571,
        1.2812374420490469,
        0.48606219302147274,
        -0.17277657126040505,
        1.1323862590712281,
        -0.47202745431795173,
        0.04123733791362397,
        0.17188749539248727,
        0.7163570941834517,
        0.600500788602412,
        0.13233725291652654,
        0.19938052624327784
      ],
      "b2": -0.6008799936060836,
      "dW1": [
        0.0014722838542096522,
        7.598975143520881e-06,
        -0.00010459637087237555,
        -3.77685239101365e-05,
        -9.966099800865283e-05,
        0.02249648266127957,
        0.000832119655324353,
        -0.002524156076648163,
        -0.004485099759550158,
        -0.0017130240919227095,
        -1.5349256424371542e-05,
        -0.00012453371189061115,
        0.006826716828741383,
        -0.014995324615749983,
        -4.925824877376889e-05,
        0.0008037803120203146
      ],
      "db1": [
        0.04022842519216107,
        -0.00017479859564447644,
        0.006656745245229068,
        0.0008687862263486038,
        0.004295696928358994,
        0.08602090615152488,
        0.02273669116823432,
        0.008718724273944996,
        0.1389113747264338,
        0.013087331568600848,
        0.0009768607540448873,
        0.0028646386568892414,
        0.06504564588650716,
        0.047891114236962275,
        0.0031349043047891262,
        0.01263094924888014
      ],
      "dW2": [
        -0.010326422453240863,
        -0.0003442326545736382,
        -0.0027648705013996883,
        -0.002545574447606183,
        -0.0008829243398544295,
        -0.06162572166047957,
        -0.006006986031900072,
        -0.002121467537112397,
        -0.050055621145616014,
        -0.001458030953923467,
        -0.0004059271340542585,
        -0.0024213996661471976,
        -0.016785789167360163,
        -0.026372291688588144,
        -0.0012946046562491917,
        -0.0028536895550433424
      ],
      "db2": 0.03350411612776534
    },
    {
      "epoch": 580,
      "train_loss": 0.359693,
      "test_loss": 0.362422,
      "W1": [
        2.5624944904959475,
        0.5604526308635924,
        1.4027549883472932,
        3.15016464112295,
        2.5536815999975415,
        -1.8152186821933245,
        1.3822446630564897,
        -0.08199061281241353,
        -0.6923238055986422,
        0.5300496910052764,
        0.20643496948801834,
        2.058823698647405,
        1.1320514602212368,
        0.23641300810027832,
        0.6366572710632014,
        0.48791489458514026
      ],
      "b1": [
        -0.31864741683062126,
        0.0037277810362943875,
        -0.09533208475327212,
        -0.015870214991022036,
        0.19122110344142892,
        -0.45229010280647913,
        -0.18151848716223032,
        0.017269231694548963,
        -0.4448462989927226,
        0.1205034901056659,
        -0.013988556722645956,
        -0.05605751108274229,
        -0.3104883999379444,
        -0.26210343003209463,
        -0.045037203579441555,
        -0.07739945383179764
      ],
      "W2": [
        0.8609767505234466,
        -0.010455681764548731,
        0.281262072038591,
        0.052365875424506034,
        -0.6446243191296287,
        1.287269596945282,
        0.4866338923022556,
        -0.172564738430189,
        1.1373659801657312,
        -0.47187147450667816,
        0.04127452247912023,
        0.1721056922313492,
        0.7180193827338582,
        0.6031409007233622,
        0.13245614089946414,
        0.1996560932915596
      ],
      "b2": -0.6038452162291214,
      "dW1": [
        0.0015763185501508244,
        6.3883287896791515e-06,
        -7.2511938186459e-05,
        -3.1984090232143464e-05,
        -0.00017449545683289117,
        0.0219683142928193,
        0.0014475983607154415,
        -0.002430760944384768,
        -0.006871508191090794,
        -0.0017728897019315057,
        -1.0640949757524491e-05,
        -0.00010513422381033637,
        0.006969003090110523,
        -0.014079913184451731,
        3.71054517106428e-05,
        0.0008315110273988176
      ],
      "db1": [
        0.038176593636228266,
        -0.00014812976662271915,
        0.005963522227803653,
        0.0007416330589279903,
        0.005947097278569449,
        0.08049499160811124,
        0.025845430099119875,
        0.009587090909959316,
        0.13771800982735932,
        0.014326398252822913,
        0.0008751323160161856,
        0.002437806279201896,
        0.06367411888534395,
        0.04816649821184301,
        0.0038229503988456122,
        0.012182446812499748
      ],
      "dW2": [
        -0.00942965097116806,
        -0.0002895890499880812,
        -0.0023824116054703,
        -0.0021492119754087935,
        -0.0010731458305544145,
        -0.05924720325437354,
        -0.005522201331138815,
        -0.0021170487785135963,
        -0.04960872493806788,
        -0.001669287942760115,
        -0.00034973836278404894,
        -0.002051654748476517,
        -0.016519964773988295,
        -0.0264352522600398,
        -0.0011210106261758078,
        -0.0026871140835412442
      ],
      "db2": 0.026236541616823227
    },
    {
      "epoch": 600,
      "train_loss": 0.355451,
      "test_loss": 0.35821,
      "W1": [
        2.562331732782933,
        0.5604520521686931,
        1.4027606382578333,
        3.1501675480306925,
        2.5537027575904774,
        -1.8173126847084506,
        1.3820968486804845,
        -0.08172562907042533,
        -0.6915748614408875,
        0.5302298698808353,
        0.20643579859868874,
        2.0588332405272136,
        1.1313476425763866,
        0.23777668924733944,
        0.6366527983712892,
        0.4878303934546104
      ],
      "b1": [
        -0.32236571673870745,
        0.003741322093333664,
        -0.09589508385749275,
        -0.015938235436223414,
        0.19054791330608667,
        -0.4604500676629035,
        -0.1840481081535729,
        0.016378603146144647,
        -0.4584900546399329,
        0.11901238249371955,
        -0.0140711754765608,
        -0.05628078599031165,
        -0.3167890373069453,
        -0.2669338103806456,
        -0.04540390618692006,
        -0.07859587907911926
      ],
      "W2": [
        0.8618756793751855,
        -0.010429467108062385,
        0.28148152932576054,
        0.052561056845576,
        -0.6445087645135005,
        1.293103098270651,
        0.48716360045309504,
        -0.17235196009127166,
        1.142314185680637,
        -0.4716953181892853,
        0.04130673664033766,
        0.17229260302597632,
        0.7196590763093687,
        0.6057888507611636,
        0.1325597711942156,
        0.1999166631960512
      ],
      "b2": -0.6061074541688843,
      "dW1": [
        0.0016739539690908238,
        5.240467741360344e-06,
        -4.191747948173712e-05,
        -2.64027670726359e-05,
        -0.00024523517800145896,
        0.020428039028639274,
        0.001505690383055036,
        -0.00268107851055725,
        -0.007775996282984282,
        -0.0018276912443797554,
        -6.151289131675446e-06,
        -8.655730694160334e-05,
        0.007099754668775257,
        -0.013249827706596926,
        5.165466949540957e-05,
        0.00085714762845853
      ],
      "db1": [
        0.03631688998243244,
        -0.00012439296523678595,
        0.005340047359602463,
        0.000626722393632895,
        0.007410524925246318,
        0.08214735160704646,
        0.024817180190232244,
        0.009307334636916723,
        0.13519813449692727,
        0.015415042134915789,
        0.000783639085457607,
        0.0020546105051647157,
        0.06242349467069073,
        0.04842564640745757,
        0.0035313501105456867,
        0.011773871825412681
      ],
      "dW2": [
        -0.008599681197113546,
        -0.00023696642073897656,
        -0.0020277083533069146,
        -0.0017727142461333306,
        -0.001219641681291815,
        -0.05794576569687654,
        -0.005098049773785765,
        -0.0021583726026125553,
        -0.049487143824299015,
        -0.001837356249074322,
        -0.00029762558436382397,
        -0.001705444968884924,
        -0.016291574777083748,
        -0.02652385733063437,
        -0.0009610249809391784,
        -0.00253390809448867
      ],
      "db2": 0.01931863375213875
    },
    {
      "epoch": 620,
      "train_loss": 0.351375,
      "test_loss": 0.354205,
      "W1": [
        2.562159088215049,
        0.5604515905282778,
        1.4027631582917357,
        3.1501698800482902,
        2.5537311166904884,
        -1.8193500739403679,
        1.381943184255336,
        -0.08145671476569341,
        -0.6907208170287873,
        0.5304155173036437,
        0.20643616840761098,
        2.0588408771536164,
        1.1306309711794174,
        0.2391217328872816,
        0.636646841471214,
        0.487743325194266
      ],
      "b1": [
        -0.3259086477513906,
        0.003752646699727528,
        -0.09639955021212049,
        -0.015995445618847498,
        0.1897385105628059,
        -0.4683992320483572,
        -0.1864806744640892,
        0.015421582217403414,
        -0.47191342025660965,
        0.11742047598719031,
        -0.014145204703086972,
        -0.056468127359315286,
        -0.32297147730953985,
        -0.2717364744321266,
        -0.04574319058028718,
        -0.07975371646996243
      ],
      "W2": [
        0.8626941328457459,
        -0.010408708436356946,
        0.28166632123092056,
        0.052717977983566755,
        -0.6443823033144781,
        1.2988097460685488,
        0.4876522220580511,
        -0.1721360958657706,
        1.147249961848498,
        -0.4715049030755464,
        0.04133385749020833,
        0.1724450873142948,
        0.7212777314473707,
        0.6084469917686222,
        0.1326477569950156,
        0.20016245753702605
      ],
      "b2": -0.6077108191573289,
      "dW1": [
        0.0018120424098126073,
        3.5897912514082754e-06,
        2.447758426662658e-06,
        -1.8178048660553656e-05,
        -0.00034685508232159407,
        0.020252936202422633,
        0.0015861105517023487,
        -0.002885887420382101,
        -0.009320731052747742,
        -0.0019031313506933864,
        3.592026829752357e-07,
        -5.946680874736269e-05,
        0.007258286288343265,
        -0.015472819124236092,
        7.261655440447736e-05,
        0.0008917011089234197
      ],
      "db1": [
        0.03467245290745704,
        -0.00010379623537762147,
        0.004793457168754912,
        0.0005256052191715529,
        0.008671956242086588,
